digraph Tree {
node [shape=box, style="filled", color="black"] ;
0 [label="X[27] <= 0.5\ngini = 0.499\nsamples = 6093\nvalue = [3168, 2925]", fillcolor="#fdf5f0"] ;
1 [label="X[20] <= 0.5\ngini = 0.284\nsamples = 3421\nvalue = [586, 2835]", fillcolor="#62b1ea"] ;
0 -> 1 [labeldistance=2.5, labelangle=45, headlabel="True"] ;
2 [label="X[82] <= 0.5\ngini = 0.481\nsamples = 979\nvalue = [586, 393]", fillcolor="#f6d6be"] ;
1 -> 2 ;
3 [label="X[28] <= 0.5\ngini = 0.36\nsamples = 766\nvalue = [586, 180]", fillcolor="#eda876"] ;
2 -> 3 ;
4 [label="gini = 0.0\nsamples = 586\nvalue = [586, 0]", fillcolor="#e58139"] ;
3 -> 4 ;
5 [label="gini = 0.0\nsamples = 180\nvalue = [0, 180]", fillcolor="#399de5"] ;
3 -> 5 ;
6 [label="gini = 0.0\nsamples = 213\nvalue = [0, 213]", fillcolor="#399de5"] ;
2 -> 6 ;
7 [label="gini = 0.0\nsamples = 2442\nvalue = [0, 2442]", fillcolor="#399de5"] ;
1 -> 7 ;
8 [label="X[86] <= 0.5\ngini = 0.065\nsamples = 2672\nvalue = [2582, 90]", fillcolor="#e68540"] ;
0 -> 8 [labeldistance=2.5, labelangle=-45, headlabel="False"] ;
9 [label="X[54] <= 0.5\ngini = 0.026\nsamples = 2616\nvalue = [2582, 34]", fillcolor="#e5833c"] ;
8 -> 9 ;
10 [label="X[7] <= 0.5\ngini = 0.005\nsamples = 2577\nvalue = [2571, 6]", fillcolor="#e58139"] ;
9 -> 10 ;
11 [label="X[1] <= 0.5\ngini = 0.003\nsamples = 2575\nvalue = [2571, 4]", fillcolor="#e58139"] ;
10 -> 11 ;
12 [label="X[33] <= 0.5\ngini = 0.002\nsamples = 2574\nvalue = [2571, 3]", fillcolor="#e58139"] ;
11 -> 12 ;
13 [label="X[20] <= 0.5\ngini = 0.042\nsamples = 141\nvalue = [138, 3]", fillcolor="#e6843d"] ;
12 -> 13 ;
14 [label="gini = 0.0\nsamples = 3\nvalue = [0, 3]", fillcolor="#399de5"] ;
13 -> 14 ;
15 [label="gini = 0.0\nsamples = 138\nvalue = [138, 0]", fillcolor="#e58139"] ;
13 -> 15 ;
16 [label="gini = 0.0\nsamples = 2433\nvalue = [2433, 0]", fillcolor="#e58139"] ;
12 -> 16 ;
17 [label="gini = 0.0\nsamples = 1\nvalue = [0, 1]", fillcolor="#399de5"] ;
11 -> 17 ;
18 [label="gini = 0.0\nsamples = 2\nvalue = [0, 2]", fillcolor="#399de5"] ;
10 -> 18 ;
19 [label="X[76] <= 0.5\ngini = 0.405\nsamples = 39\nvalue = [11, 28]", fillcolor="#87c4ef"] ;
9 -> 19 ;
20 [label="gini = 0.0\nsamples = 11\nvalue = [11, 0]", fillcolor="#e58139"] ;
19 -> 20 ;
21 [label="gini = 0.0\nsamples = 28\nvalue = [0, 28]", fillcolor="#399de5"] ;
19 -> 21 ;
22 [label="gini = 0.0\nsamples = 56\nvalue = [0, 56]", fillcolor="#399de5"] ;
8 -> 22 ;
}