digraph Tree {
node [shape=box, style="filled", color="black"] ;
0 [label="X[7] <= 3.5\ngini = 0.499\nsamples = 6093\nvalue = [3168, 2925]", fillcolor="#fdf5f0"] ;
1 [label="X[15] <= 3.5\ngini = 0.278\nsamples = 2463\nvalue = [410, 2053]", fillcolor="#61b1ea"] ;
0 -> 1 [labeldistance=2.5, labelangle=45, headlabel="True"] ;
2 [label="X[14] <= 1.5\ngini = 0.211\nsamples = 441\nvalue = [388, 53]", fillcolor="#e99254"] ;
1 -> 2 ;
3 [label="gini = 0.0\nsamples = 34\nvalue = [0, 34]", fillcolor="#399de5"] ;
2 -> 3 ;
4 [label="X[6] <= 0.5\ngini = 0.089\nsamples = 407\nvalue = [388, 19]", fillcolor="#e68743"] ;
2 -> 4 ;
5 [label="gini = 0.0\nsamples = 388\nvalue = [388, 0]", fillcolor="#e58139"] ;
4 -> 5 ;
6 [label="gini = 0.0\nsamples = 19\nvalue = [0, 19]", fillcolor="#399de5"] ;
4 -> 6 ;
7 [label="X[16] <= 4.5\ngini = 0.022\nsamples = 2022\nvalue = [22, 2000]", fillcolor="#3b9ee5"] ;
1 -> 7 ;
8 [label="X[9] <= 0.5\ngini = 0.008\nsamples = 1992\nvalue = [8, 1984]", fillcolor="#3a9de5"] ;
7 -> 8 ;
9 [label="X[3] <= 0.5\ngini = 0.5\nsamples = 16\nvalue = [8, 8]", fillcolor="#ffffff"] ;
8 -> 9 ;
10 [label="gini = 0.0\nsamples = 8\nvalue = [8, 0]", fillcolor="#e58139"] ;
9 -> 10 ;
11 [label="gini = 0.0\nsamples = 8\nvalue = [0, 8]", fillcolor="#399de5"] ;
9 -> 11 ;
12 [label="gini = 0.0\nsamples = 1976\nvalue = [0, 1976]", fillcolor="#399de5"] ;
8 -> 12 ;
13 [label="X[14] <= 1.5\ngini = 0.498\nsamples = 30\nvalue = [14, 16]", fillcolor="#e6f3fc"] ;
7 -> 13 ;
14 [label="gini = 0.0\nsamples = 16\nvalue = [0, 16]", fillcolor="#399de5"] ;
13 -> 14 ;
15 [label="gini = 0.0\nsamples = 14\nvalue = [14, 0]", fillcolor="#e58139"] ;
13 -> 15 ;
16 [label="X[14] <= 1.5\ngini = 0.365\nsamples = 3630\nvalue = [2758, 872]", fillcolor="#eda978"] ;
0 -> 16 [labeldistance=2.5, labelangle=-45, headlabel="False"] ;
17 [label="X[4] <= 3.5\ngini = 0.205\nsamples = 544\nvalue = [63, 481]", fillcolor="#53aae8"] ;
16 -> 17 ;
18 [label="gini = 0.0\nsamples = 481\nvalue = [0, 481]", fillcolor="#399de5"] ;
17 -> 18 ;
19 [label="gini = 0.0\nsamples = 63\nvalue = [63, 0]", fillcolor="#e58139"] ;
17 -> 19 ;
20 [label="X[6] <= 0.5\ngini = 0.221\nsamples = 3086\nvalue = [2695, 391]", fillcolor="#e99356"] ;
16 -> 20 ;
21 [label="X[10] <= 1.5\ngini = 0.05\nsamples = 2610\nvalue = [2543, 67]", fillcolor="#e6843e"] ;
20 -> 21 ;
22 [label="gini = 0.0\nsamples = 29\nvalue = [0, 29]", fillcolor="#399de5"] ;
21 -> 22 ;
23 [label="X[12] <= 1.5\ngini = 0.029\nsamples = 2581\nvalue = [2543, 38]", fillcolor="#e5833c"] ;
21 -> 23 ;
24 [label="gini = 0.0\nsamples = 2289\nvalue = [2289, 0]", fillcolor="#e58139"] ;
23 -> 24 ;
25 [label="X[14] <= 6.0\ngini = 0.226\nsamples = 292\nvalue = [254, 38]", fillcolor="#e99457"] ;
23 -> 25 ;
26 [label="gini = 0.0\nsamples = 38\nvalue = [0, 38]", fillcolor="#399de5"] ;
25 -> 26 ;
27 [label="gini = 0.0\nsamples = 254\nvalue = [254, 0]", fillcolor="#e58139"] ;
25 -> 27 ;
28 [label="X[4] <= 5.5\ngini = 0.435\nsamples = 476\nvalue = [152, 324]", fillcolor="#96cbf1"] ;
20 -> 28 ;
29 [label="X[4] <= 2.0\ngini = 0.5\nsamples = 296\nvalue = [152, 144]", fillcolor="#fef8f5"] ;
28 -> 29 ;
30 [label="X[4] <= 0.5\ngini = 0.349\nsamples = 142\nvalue = [32, 110]", fillcolor="#73baed"] ;
29 -> 30 ;
31 [label="gini = 0.0\nsamples = 32\nvalue = [32, 0]", fillcolor="#e58139"] ;
30 -> 31 ;
32 [label="gini = 0.0\nsamples = 110\nvalue = [0, 110]", fillcolor="#399de5"] ;
30 -> 32 ;
33 [label="X[9] <= 2.5\ngini = 0.344\nsamples = 154\nvalue = [120, 34]", fillcolor="#eca571"] ;
29 -> 33 ;
34 [label="X[15] <= 2.5\ngini = 0.091\nsamples = 126\nvalue = [120, 6]", fillcolor="#e68743"] ;
33 -> 34 ;
35 [label="gini = 0.0\nsamples = 6\nvalue = [0, 6]", fillcolor="#399de5"] ;
34 -> 35 ;
36 [label="gini = 0.0\nsamples = 120\nvalue = [120, 0]", fillcolor="#e58139"] ;
34 -> 36 ;
37 [label="gini = 0.0\nsamples = 28\nvalue = [0, 28]", fillcolor="#399de5"] ;
33 -> 37 ;
38 [label="gini = 0.0\nsamples = 180\nvalue = [0, 180]", fillcolor="#399de5"] ;
28 -> 38 ;
}